\frametitle {Ukázka výstupu z programu WEKA}
\begin{lstlisting}[frame=single,language=SQL,label=sql]
=== Classifier model (full training set) ===
J48 pruned tree
------------------
rez <= 4.985968: 1 (56.0/5.0)
rez > 4.985968
|   a <= 1.725255
|   |   rez <= 15.266346
|   |   |   a <= 1.542392: 1 (35.0)
|   |   |   a > 1.542392
|   |   |   |   b <= -0.000021: 2 (8.0/2.0)
|   |   |   |   b > -0.000021: 1 (3.0)
|   |   rez > 15.266346
|   |   |   rez <= 34.054842
\end{lstlisting}

